{"loss": 0.003614527639001608, "_timestamp": 1673441275.039389, "_runtime": 498.1860017776489, "_step": 979, "gradients/classifier.3.bias": {"_type": "histogram", "values": [1.0, 0.0, 0.0, 0.0, 0.0, 0.0, 0.0, 0.0, 0.0, 0.0, 0.0, 0.0, 0.0, 0.0, 0.0, 0.0, 0.0, 0.0, 0.0, 1.0, 0.0, 0.0, 0.0, 0.0, 0.0, 0.0, 1.0, 0.0, 1.0, 0.0, 0.0, 0.0, 0.0, 0.0, 0.0, 1.0, 0.0, 1.0, 0.0, 0.0, 0.0, 0.0, 1.0, 0.0, 1.0, 0.0, 0.0, 0.0, 0.0, 0.0, 0.0, 0.0, 1.0, 0.0, 0.0, 0.0, 0.0, 0.0, 0.0, 0.0, 0.0, 0.0, 0.0, 1.0], "bins": [-0.02021184377372265, -0.019634811207652092, -0.019057776778936386, -0.01848074421286583, -0.017903709784150124, -0.017326677218079567, -0.01674964278936386, -0.016172610223293304, -0.015595576725900173, -0.015018543228507042, -0.01444150973111391, -0.01386447623372078, -0.013287443667650223, -0.012710409238934517, -0.01213337667286396, -0.011556343175470829, -0.010979309678077698, -0.010402276180684566, -0.009825242683291435, -0.009248209185898304, -0.008671175688505173, -0.008094143122434616, -0.007517109625041485, -0.006940076127648354, -0.006363042630255222, -0.005786009132862091, -0.00520897563546896, -0.004631942603737116, -0.004054909106343985, -0.0034778756089508533, -0.0029008423443883657, -0.002323809079825878, -0.0017467755824327469, -0.0011697422014549375, -0.000592708820477128, -1.56754394993186e-05, 0.0005613579414784908, 0.001138391438871622, 0.0017154247034341097, 0.0022924579679965973, 0.0028694914653897285, 0.00344652496278286, 0.004023558460175991, 0.004600591491907835, 0.005177624989300966, 0.0057546584866940975, 0.0063316915184259415, 0.006908725015819073, 0.007485758513212204, 0.008062792010605335, 0.008639825507998466, 0.009216859005391598, 0.009793892502784729, 0.010370925068855286, 0.010947958566248417, 0.011524992063641548, 0.01210202556103468, 0.01267905905842781, 0.013256092555820942, 0.013833126053214073, 0.01441015861928463, 0.014987193048000336, 0.015564225614070892, 0.01614125818014145, 0.016718292608857155]}, "gradients/classifier.3.weight": {"_type": "histogram", "values": [1.0, 1.0, 0.0, 0.0, 0.0, 1.0, 0.0, 1.0, 1.0, 2.0, 0.0, 2.0, 2.0, 2.0, 0.0, 2.0, 1.0, 3.0, 3.0, 5.0, 5.0, 5.0, 4.0, 5.0, 10.0, 15.0, 19.0, 20.0, 15.0, 30.0, 37.0, 28.0, 41.0, 43.0, 72.0, 247.0, 252.0, 93.0, 50.0, 46.0, 27.0, 35.0, 21.0, 17.0, 24.0, 16.0, 6.0, 12.0, 10.0, 13.0, 6.0, 6.0, 5.0, 2.0, 3.0, 2.0, 1.0, 3.0, 0.0, 1.0, 3.0, 1.0, 1.0, 1.0], "bins": [-0.1263018697500229, -0.12279539555311203, -0.11928892880678177, -0.11578245460987091, -0.11227598041296005, -0.1087695062160492, -0.10526303946971893, -0.10175656527280807, -0.09825009107589722, -0.09474361687898636, -0.0912371501326561, -0.08773067593574524, -0.08422420173883438, -0.08071772754192352, -0.07721126079559326, -0.0737047865986824, -0.07019831985235214, -0.06669184565544128, -0.06318537890911102, -0.059678904712200165, -0.05617243051528931, -0.05266596004366875, -0.04915948957204819, -0.04565301537513733, -0.04214654862880707, -0.03864007815718651, -0.03513360396027565, -0.03162713348865509, -0.02812066115438938, -0.024614188820123672, -0.021107718348503113, -0.017601246014237404, -0.014094769954681396, -0.010588297620415688, -0.007081826217472553, -0.003575354814529419, -6.888248026371002e-05, 0.003437589854001999, 0.006944060325622559, 0.010450532659888268, 0.013957008719444275, 0.017463481053709984, 0.020969953387975693, 0.024476423859596252, 0.02798289619386196, 0.03148936852812767, 0.03499583899974823, 0.03850231319665909, 0.04200877994298935, 0.04551525041460991, 0.04902172461152077, 0.05252819508314133, 0.056034669280052185, 0.059541139751672745, 0.0630476102232933, 0.06655408442020416, 0.07006055116653442, 0.07356702536344528, 0.07707349210977554, 0.0805799663066864, 0.08408644050359726, 0.08759291470050812, 0.09109938144683838, 0.09460585564374924, 0.0981123298406601]}, "gradients/classifier.1.bias": {"_type": "histogram", "values": [1.0, 1.0, 1.0, 0.0, 1.0, 0.0, 0.0, 2.0, 1.0, 2.0, 0.0, 3.0, 2.0, 0.0, 2.0, 1.0, 3.0, 5.0, 2.0, 3.0, 7.0, 1.0, 4.0, 3.0, 6.0, 6.0, 3.0, 2.0, 5.0, 5.0, 4.0, 4.0, 0.0, 5.0, 2.0, 1.0, 5.0, 0.0, 6.0, 5.0, 2.0, 2.0, 2.0, 3.0, 1.0, 0.0, 0.0, 2.0, 3.0, 1.0, 4.0, 0.0, 0.0, 0.0, 1.0, 0.0, 1.0, 0.0, 0.0, 1.0, 0.0, 0.0, 0.0, 1.0], "bins": [-0.004454311914741993, -0.004300306085497141, -0.004146300721913576, -0.003992294892668724, -0.003838289063423872, -0.0036842834670096636, -0.003530277870595455, -0.003376272041350603, -0.0032222664449363947, -0.0030682608485221863, -0.002914255019277334, -0.002760249422863126, -0.0026062438264489174, -0.0024522379972040653, -0.002298232400789857, -0.0021442268043756485, -0.0019902209751307964, -0.0018362152623012662, -0.001682209549471736, -0.0015282039530575275, -0.0013741982402279973, -0.001220192527398467, -0.0010661869309842587, -0.0009121812181547284, -0.0007581755053251982, -0.0006041697924956679, -0.0004501641378737986, -0.0002961584541480988, -0.00014215277042239904, 1.1852942407131195e-05, 0.00016585859702900052, 0.00031986425165086985, 0.0004738704301416874, 0.0006278761429712176, 0.000781881797593087, 0.0009358874522149563, 0.0010898931650444865, 0.0012438988778740168, 0.0013979044742882252, 0.0015519101871177554, 0.0017059158999472857, 0.0018599216127768159, 0.002013927325606346, 0.0021679329220205545, 0.002321938518434763, 0.002475944347679615, 0.0026299499440938234, 0.002783955540508032, 0.002937961369752884, 0.0030919669661670923, 0.0032459727954119444, 0.003399978391826153, 0.003553984221071005, 0.0037079898174852133, 0.0038619954138994217, 0.004016001243144274, 0.004170007072389126, 0.004324012901633978, 0.004478018265217543, 0.004632024094462395, 0.004786029923707247, 0.004940035752952099, 0.005094041116535664, 0.005248046945780516, 0.00540205230936408]}, "gradients/classifier.1.weight": {"_type": "histogram", "values": [2.0, 1.0, 3.0, 1.0, 6.0, 5.0, 17.0, 14.0, 25.0, 21.0, 37.0, 52.0, 73.0, 91.0, 143.0, 218.0, 249.0, 358.0, 478.0, 682.0, 877.0, 1156.0, 1582.0, 2281.0, 3167.0, 4732.0, 7164.0, 11869.0, 23621.0, 223441.0, 78971.0, 19131.0, 9799.0, 5889.0, 3761.0, 2546.0, 1840.0, 1330.0, 952.0, 686.0, 548.0, 387.0, 360.0, 244.0, 165.0, 148.0, 107.0, 99.0, 60.0, 54.0, 41.0, 26.0, 24.0, 17.0, 16.0, 11.0, 9.0, 4.0, 1.0, 3.0, 3.0, 0.0, 1.0, 1.0], "bins": [-0.01051292009651661, -0.010160848498344421, -0.009808776900172234, -0.009456705302000046, -0.009104633703827858, -0.00875256210565567, -0.008400490507483482, -0.008048418909311295, -0.007696347776800394, -0.007344276178628206, -0.0069922045804560184, -0.006640133447945118, -0.00628806184977293, -0.005935990251600742, -0.0055839186534285545, -0.005231847055256367, -0.004879775457084179, -0.004527703858911991, -0.004175632260739803, -0.003823560895398259, -0.0034714892972260714, -0.0031194176990538836, -0.0027673463337123394, -0.0024152747355401516, -0.002063203603029251, -0.0017111320048570633, -0.0013590605231001973, -0.0010069890413433313, -0.0006549174431711435, -0.0003028458449989557, 4.9225520342588425e-05, 0.00040129711851477623, 0.000753370113670826, 0.0011054417118430138, 0.0014575131935998797, 0.0018095846753567457, 0.0021616562735289335, 0.0025137278717011213, 0.0028657992370426655, 0.0032178708352148533, 0.0035699428990483284, 0.003922014497220516, 0.004274086095392704, 0.004626157693564892, 0.00497822929173708, 0.005330300889909267, 0.005682372022420168, 0.006034443620592356, 0.006386514753103256, 0.006738586351275444, 0.007090657949447632, 0.00744272954761982, 0.0077948011457920074, 0.008146872743964195, 0.008498944342136383, 0.00885101594030857, 0.009203087538480759, 0.009555159136652946, 0.009907230734825134, 0.010259302332997322, 0.01061137393116951, 0.010963445529341698, 0.011315517127513885, 0.011667588725686073, 0.012019659392535686]}, "gradients/backbone.6.weight": {"_type": "histogram", "values": [3.0, 2.0, 0.0, 4.0, 1.0, 0.0, 2.0, 3.0, 4.0, 1.0, 3.0, 7.0, 5.0, 7.0, 4.0, 6.0, 6.0, 6.0, 3.0, 7.0, 8.0, 12.0, 9.0, 11.0, 16.0, 15.0, 12.0, 22.0, 26.0, 43.0, 73.0, 348.0, 114.0, 66.0, 53.0, 41.0, 32.0, 30.0, 20.0, 14.0, 16.0, 22.0, 14.0, 8.0, 12.0, 4.0, 6.0, 5.0, 7.0, 3.0, 3.0, 2.0, 1.0, 1.0, 3.0, 0.0, 0.0, 0.0, 2.0, 2.0, 1.0, 0.0, 0.0, 1.0], "bins": [-0.13759158551692963, -0.13323944807052612, -0.1288873255252838, -0.12453519552946091, -0.120183065533638, -0.1158309355378151, -0.11147880554199219, -0.10712667554616928, -0.10277454555034637, -0.09842241555452347, -0.09407028555870056, -0.08971815556287766, -0.08536602556705475, -0.08101389557123184, -0.07666176557540894, -0.07230963557958603, -0.06795750558376312, -0.06360537558794022, -0.05925324559211731, -0.0549011155962944, -0.0505489856004715, -0.04619685560464859, -0.041844725608825684, -0.03749259561300278, -0.03314046561717987, -0.028788335621356964, -0.024436205625534058, -0.02008407562971115, -0.015731945633888245, -0.011379815638065338, -0.007027685642242432, -0.002675555646419525, 0.0016765892505645752, 0.006028719246387482, 0.010380849242210388, 0.014732979238033295, 0.0190851092338562, 0.023437239229679108, 0.027789369225502014, 0.03214149922132492, 0.03649362921714783, 0.040845759212970734, 0.04519788920879364, 0.04955001920461655, 0.05390214920043945, 0.05825427919626236, 0.06260640919208527, 0.06695853918790817, 0.07131066918373108, 0.07566279917955399, 0.08001492917537689, 0.0843670591711998, 0.0887191891670227, 0.09307131916284561, 0.09742344915866852, 0.10177557915449142, 0.10612770915031433, 0.11047983914613724, 0.11483196914196014, 0.11918409913778305, 0.12353622913360596, 0.12788835167884827, 0.13224048912525177, 0.13659262657165527, 0.14094474911689758]}, "gradients/backbone.6.bias": {"_type": "histogram", "values": [1.0, 0.0, 0.0, 0.0, 0.0, 0.0, 0.0, 0.0, 0.0, 1.0, 0.0, 0.0, 0.0, 0.0, 1.0, 0.0, 0.0, 0.0, 0.0, 0.0, 0.0, 0.0, 0.0, 0.0, 0.0, 0.0, 0.0, 0.0, 0.0, 0.0, 0.0, 1.0, 0.0, 0.0, 0.0, 0.0, 1.0, 1.0, 0.0, 0.0, 1.0, 0.0, 0.0, 0.0, 0.0, 0.0, 0.0, 0.0, 0.0, 0.0, 0.0, 0.0, 0.0, 0.0, 0.0, 0.0, 0.0, 0.0, 0.0, 0.0, 0.0, 0.0, 0.0, 1.0], "bins": [-0.039683129638433456, -0.03823701664805412, -0.03679090365767479, -0.03534478694200516, -0.033898673951625824, -0.03245256096124649, -0.031006447970867157, -0.029560334980487823, -0.02811422012746334, -0.026668107137084007, -0.025221992284059525, -0.02377587929368019, -0.022329766303300858, -0.020883651450276375, -0.01943753845989704, -0.01799142360687256, -0.016545310616493225, -0.015099196694791317, -0.013653082773089409, -0.012206969782710075, -0.010760855861008167, -0.00931474193930626, -0.007868628948926926, -0.0064225150272250175, -0.004976402968168259, -0.003530289279296994, -0.0020841755904257298, -0.000638062134385109, 0.0008080517873167992, 0.0022541657090187073, 0.0037002786993980408, 0.005146392621099949, 0.006592512130737305, 0.008038626052439213, 0.009484739974141121, 0.010930852964520454, 0.012376966886222363, 0.01382308080792427, 0.015269193798303604, 0.016715306788682938, 0.01816142350435257, 0.019607536494731903, 0.021053651347756386, 0.02249976433813572, 0.023945879191160202, 0.025391992181539536, 0.02683810517191887, 0.028284218162298203, 0.029730331152677536, 0.03117644414305687, 0.0326225571334362, 0.034068673849105835, 0.03551478683948517, 0.0369608998298645, 0.038407012820243835, 0.03985312581062317, 0.0412992388010025, 0.042745351791381836, 0.04419146478176117, 0.0456375777721405, 0.047083694487810135, 0.04852980747818947, 0.0499759204685688, 0.051422033458948135, 0.05286815017461777]}, "gradients/backbone.4.weight": {"_type": "histogram", "values": [1.0, 0.0, 0.0, 2.0, 0.0, 2.0, 3.0, 1.0, 1.0, 1.0, 1.0, 2.0, 3.0, 6.0, 5.0, 2.0, 3.0, 8.0, 6.0, 7.0, 6.0, 5.0, 12.0, 4.0, 13.0, 18.0, 17.0, 35.0, 16.0, 48.0, 37.0, 57.0, 68.0, 82.0, 126.0, 133.0, 186.0, 216.0, 370.0, 1753.0, 303.0, 200.0, 143.0, 104.0, 96.0, 78.0, 62.0, 50.0, 57.0, 52.0, 36.0, 33.0, 28.0, 20.0, 19.0, 20.0, 11.0, 10.0, 14.0, 6.0, 2.0, 3.0, 3.0, 2.0], "bins": [-0.05024385452270508, -0.048971157521009445, -0.04769846051931381, -0.04642575979232788, -0.04515306279063225, -0.043880365788936615, -0.04260766878724098, -0.04133497178554535, -0.04006227105855942, -0.038789574056863785, -0.03751687705516815, -0.03624417632818222, -0.03497147932648659, -0.033698782324790955, -0.03242608532309532, -0.03115338645875454, -0.029880689457058907, -0.028607992455363274, -0.02733529359102249, -0.02606259658932686, -0.024789897724986076, -0.023517200723290443, -0.02224450185894966, -0.02097180485725403, -0.019699107855558395, -0.018426410853862762, -0.01715371198952198, -0.015881014987826347, -0.014608316123485565, -0.013335619121789932, -0.012062921188771725, -0.010790223255753517, -0.009517522528767586, -0.008244824595749378, -0.006972126662731171, -0.00569942919537425, -0.004426731262356043, -0.0031540333293378353, -0.001881335861980915, -0.0006086379289627075, 0.0006640609353780746, 0.0019367587519809604, 0.003209456568583846, 0.00448215426877141, 0.0057548522017896175, 0.007027550134807825, 0.008300247602164745, 0.009572945535182953, 0.010845642536878586, 0.012118340469896793, 0.013391038402915001, 0.014663735404610634, 0.015936434268951416, 0.01720913127064705, 0.018481828272342682, 0.019754527136683464, 0.021027226001024246, 0.02229992300271988, 0.02357262186706066, 0.024845318868756294, 0.026118017733097076, 0.02739071473479271, 0.028663411736488342, 0.029936110600829124, 0.031208807602524757]}, "gradients/backbone.4.bias": {"_type": "histogram", "values": [1.0, 0.0, 0.0, 0.0, 0.0, 0.0, 0.0, 0.0, 0.0, 0.0, 0.0, 1.0, 0.0, 0.0, 0.0, 0.0, 0.0, 0.0, 0.0, 1.0, 0.0, 0.0, 0.0, 0.0, 0.0, 0.0, 0.0, 0.0, 0.0, 0.0, 0.0, 1.0, 0.0, 1.0, 0.0, 1.0, 0.0, 1.0, 0.0, 0.0, 0.0, 3.0, 0.0, 0.0, 1.0, 1.0, 0.0, 0.0, 0.0, 0.0, 0.0, 0.0, 0.0, 1.0, 0.0, 1.0, 0.0, 0.0, 0.0, 0.0, 0.0, 1.0, 0.0, 1.0], "bins": [-0.02563617378473282, -0.025013606995344162, -0.024391040205955505, -0.02376847341656685, -0.023145906627178192, -0.022523339837789536, -0.02190077304840088, -0.021278206259012222, -0.020655639469623566, -0.02003307268023491, -0.019410505890846252, -0.018787939101457596, -0.01816537231206894, -0.017542805522680283, -0.016920238733291626, -0.01629767194390297, -0.015675107017159462, -0.015052540227770805, -0.014429973438382149, -0.013807406648993492, -0.013184839859604836, -0.012562273070216179, -0.011939707212150097, -0.01131714042276144, -0.010694573633372784, -0.010072006843984127, -0.00944944005459547, -0.008826873265206814, -0.008204307407140732, -0.007581740152090788, -0.006959173828363419, -0.006336607038974762, -0.005714039318263531, -0.005091472528874874, -0.0044689057394862175, -0.003846339415758848, -0.0032237726263701916, -0.002601205836981535, -0.001978639280423522, -0.001356072723865509, -0.0007335059344768524, -0.00011093926150351763, 0.0005116274114698172, 0.001134194084443152, 0.0017567607574164867, 0.0023793275468051434, 0.0030018941033631563, 0.0036244606599211693, 0.004247027449309826, 0.0048695942386984825, 0.005492161028087139, 0.0061147273518145084, 0.006737294141203165, 0.007359860930591822, 0.007982427254319191, 0.008604994043707848, 0.009227560833096504, 0.00985012762248516, 0.010472694411873817, 0.011095261201262474, 0.01171782799065113, 0.012340394780039787, 0.01296296063810587, 0.013585527427494526, 0.014208094216883183]}, "gradients/backbone.2.weight": {"_type": "histogram", "values": [3.0, 0.0, 3.0, 1.0, 2.0, 4.0, 8.0, 8.0, 8.0, 12.0, 15.0, 11.0, 24.0, 22.0, 19.0, 30.0, 45.0, 61.0, 72.0, 79.0, 88.0, 124.0, 150.0, 224.0, 312.0, 416.0, 584.0, 887.0, 1377.0, 5832.0, 3050.0, 1310.0, 934.0, 602.0, 422.0, 349.0, 265.0, 199.0, 170.0, 154.0, 88.0, 88.0, 61.0, 47.0, 42.0, 34.0, 43.0, 19.0, 19.0, 18.0, 21.0, 8.0, 15.0, 18.0, 8.0, 7.0, 5.0, 2.0, 1.0, 4.0, 2.0, 1.0, 3.0, 2.0], "bins": [-0.008443355560302734, -0.008161267265677452, -0.00787917897105217, -0.007597091142088175, -0.0073150028474628925, -0.0070329150184988976, -0.006750826723873615, -0.006468738429248333, -0.006186650134623051, -0.005904561839997768, -0.005622474011033773, -0.005340385716408491, -0.005058297421783209, -0.004776209592819214, -0.004494121298193932, -0.004212033003568649, -0.003929945174604654, -0.0036478571128100157, -0.0033657688181847334, -0.0030836807563900948, -0.0028015924617648125, -0.002519504399970174, -0.002237416338175535, -0.001955328043550253, -0.001673240214586258, -0.0013911520363762975, -0.001109063858166337, -0.0008269757963716984, -0.0005448876181617379, -0.00026279943995177746, 1.9288621842861176e-05, 0.00030137691646814346, 0.0005834652110934258, 0.0008655533893033862, 0.0011476415675133467, 0.0014297296293079853, 0.0017118178075179458, 0.0019939059857279062, 0.002275994047522545, 0.002558082342147827, 0.0028401706367731094, 0.003122258698567748, 0.0034043469931930304, 0.003686435054987669, 0.003968523349612951, 0.004250611178576946, 0.0045326994732022285, 0.004814787767827511, 0.005096875596791506, 0.005378963891416788, 0.005661051720380783, 0.005943140015006065, 0.006225228309631348, 0.00650731660425663, 0.006789404433220625, 0.007071492727845907, 0.007353580556809902, 0.0076356688514351845, 0.007917757146060467, 0.008199844509363174, 0.008481932803988457, 0.008764021098613739, 0.009046109393239021, 0.009328197687864304, 0.009610285982489586]}, "gradients/backbone.2.bias": {"_type": "histogram", "values": [1.0, 0.0, 0.0, 0.0, 0.0, 0.0, 0.0, 0.0, 0.0, 0.0, 0.0, 0.0, 0.0, 0.0, 0.0, 0.0, 0.0, 0.0, 1.0, 0.0, 2.0, 0.0, 0.0, 0.0, 1.0, 1.0, 0.0, 0.0, 1.0, 0.0, 0.0, 1.0, 0.0, 0.0, 0.0, 2.0, 5.0, 1.0, 1.0, 2.0, 4.0, 1.0, 1.0, 0.0, 0.0, 2.0, 1.0, 0.0, 0.0, 1.0, 0.0, 0.0, 0.0, 0.0, 0.0, 0.0, 1.0, 0.0, 1.0, 0.0, 0.0, 0.0, 0.0, 1.0], "bins": [-0.013089212588965893, -0.01272999681532383, -0.012370781041681767, -0.012011565268039703, -0.011652348563075066, -0.011293132789433002, -0.01093391701579094, -0.010574701242148876, -0.010215485468506813, -0.00985626969486475, -0.009497053921222687, -0.009137837216258049, -0.008778621442615986, -0.008419405668973923, -0.00806018989533186, -0.0077009741216897964, -0.007341757416725159, -0.0069825416430830956, -0.006623325403779745, -0.006264109630137682, -0.0059048933908343315, -0.005545677617192268, -0.005186461843550205, -0.004827246069908142, -0.004468030296266079, -0.004108814522624016, -0.0037495982833206654, -0.0033903825096786022, -0.0030311665032058954, -0.0026719504967331886, -0.0023127347230911255, -0.0019535187166184187, -0.0015943022444844246, -0.0012350862380117178, -0.0008758703479543328, -0.0005166544578969479, -0.00015743845142424107, 0.00020177755504846573, 0.0005609933286905289, 0.0009202093351632357, 0.0012794258072972298, 0.0016386418137699366, 0.0019978578202426434, 0.0023570735938847065, 0.0027162896003574133, 0.00307550560683012, 0.0034347213804721832, 0.00379393738694489, 0.0041531529277563095, 0.004512368701398373, 0.004871584940701723, 0.005230800714343786, 0.005590016953647137, 0.0059492327272892, 0.006308448500931263, 0.006667664274573326, 0.0070268805138766766, 0.00738609628751874, 0.00774531252682209, 0.008104528300464153, 0.008463744074106216, 0.008822960779070854, 0.009182175621390343, 0.00954139232635498, 0.009900608099997044]}, "gradients/backbone.0.weight": {"_type": "histogram", "values": [2.0, 0.0, 0.0, 0.0, 0.0, 2.0, 0.0, 0.0, 1.0, 0.0, 1.0, 0.0, 0.0, 1.0, 0.0, 0.0, 1.0, 1.0, 0.0, 0.0, 1.0, 1.0, 1.0, 5.0, 1.0, 3.0, 5.0, 9.0, 23.0, 12.0, 7.0, 11.0, 28.0, 27.0, 31.0, 39.0, 46.0, 90.0, 34.0, 20.0, 24.0, 30.0, 21.0, 14.0, 16.0, 8.0, 2.0, 8.0, 8.0, 6.0, 5.0, 1.0, 7.0, 2.0, 5.0, 2.0, 4.0, 3.0, 3.0, 0.0, 1.0, 0.0, 1.0, 2.0], "bins": [-0.02832675725221634, -0.02757500298321247, -0.026823250576853752, -0.026071496307849884, -0.025319742038846016, -0.024567987769842148, -0.02381623536348343, -0.02306448109447956, -0.022312726825475693, -0.021560972556471825, -0.020809220150113106, -0.020057465881109238, -0.01930571161210537, -0.0185539573431015, -0.017802204936742783, -0.017050450667738914, -0.016298698261380196, -0.015546944923698902, -0.014795190654695034, -0.01404343731701374, -0.013291683048009872, -0.012539929710328579, -0.011788176372647285, -0.011036422103643417, -0.010284669697284698, -0.009532916359603405, -0.008781162090599537, -0.008029408752918243, -0.007277654949575663, -0.006525901146233082, -0.005774147808551788, -0.0050223940052092075, -0.004270637407898903, -0.003518883604556322, -0.002767130034044385, -0.002015376463532448, -0.001263622660189867, -0.0005118688568472862, 0.00023988448083400726, 0.000991638284176588, 0.0017433930188417435, 0.0024951468221843243, 0.0032469003926962614, 0.0039986539632081985, 0.004750407766550779, 0.00550216156989336, 0.006253914907574654, 0.007005668710917234, 0.007757421582937241, 0.008509174920618534, 0.009260929189622402, 0.010012682527303696, 0.010764436796307564, 0.011516190133988857, 0.01226794347167015, 0.013019697740674019, 0.013771451078355312, 0.014523204416036606, 0.015274958685040474, 0.016026712954044342, 0.01677846536040306, 0.01753021962940693, 0.018281973898410797, 0.019033726304769516, 0.019785480573773384]}, "gradients/backbone.0.bias": {"_type": "histogram", "values": [1.0, 0.0, 0.0, 0.0, 0.0, 0.0, 0.0, 0.0, 0.0, 0.0, 0.0, 0.0, 1.0, 0.0, 0.0, 0.0, 0.0, 0.0, 1.0, 1.0, 0.0, 0.0, 0.0, 0.0, 0.0, 0.0, 1.0, 3.0, 1.0, 0.0, 1.0, 4.0, 0.0, 4.0, 1.0, 1.0, 2.0, 4.0, 3.0, 3.0, 3.0, 5.0, 2.0, 6.0, 3.0, 3.0, 3.0, 0.0, 1.0, 0.0, 1.0, 0.0, 0.0, 1.0, 0.0, 0.0, 0.0, 0.0, 1.0, 1.0, 0.0, 1.0, 0.0, 1.0], "bins": [-0.034570105373859406, -0.033721182495355606, -0.03287225961685181, -0.03202333673834801, -0.031174413859844208, -0.03032549098134041, -0.02947656810283661, -0.02862764522433281, -0.02777872234582901, -0.02692979946732521, -0.02608087658882141, -0.02523195371031761, -0.024383030831813812, -0.023534107953310013, -0.022685185074806213, -0.021836262196302414, -0.020987341180443764, -0.020138418301939964, -0.019289495423436165, -0.018440572544932365, -0.017591649666428566, -0.016742726787924767, -0.015893805772066116, -0.015044881962239742, -0.014195960015058517, -0.013347037136554718, -0.012498114258050919, -0.01164919137954712, -0.01080026850104332, -0.00995134562253952, -0.009102423675358295, -0.008253500796854496, -0.007404575124382973, -0.006555652245879173, -0.005706729367375374, -0.004857806954532862, -0.004008884076029062, -0.003159961197525263, -0.0023110387846827507, -0.0014621159061789513, -0.0006131920963525772, 0.0002357306657359004, 0.001084653427824378, 0.0019335760734975338, 0.0027824989520013332, 0.0036314218305051327, 0.004480344243347645, 0.005329267121851444, 0.006178189069032669, 0.0070271119475364685, 0.007876034826040268, 0.008724957704544067, 0.009573880583047867, 0.010422803461551666, 0.011271725408732891, 0.01212064828723669, 0.01296957116574049, 0.01381849404424429, 0.014667416922748089, 0.015516338869929314, 0.016365261748433113, 0.017214184626936913, 0.018063107505440712, 0.01891203038394451, 0.01976095326244831]}, "_wandb": {"runtime": 497}}